<?xml version="1.0"?>
<opencv_storage>
<opencv_ml_svm>
  <format>3</format>
  <svmType>C_SVC</svmType>
  <kernel>
    <type>LINEAR</type></kernel>
  <C>1.</C>
  <term_criteria><epsilon>1.1920928955078125e-07</epsilon>
    <iterations>1000</iterations></term_criteria>
  <var_count>256</var_count>
  <class_count>2</class_count>
  <class_labels type_id="opencv-matrix">
    <rows>2</rows>
    <cols>1</cols>
    <dt>i</dt>
    <data>
      0 1</data></class_labels>
  <sv_total>1</sv_total>
  <support_vectors>
    <_>
      0. 0. 2.95080582e-07 5.17331644e-09 1.92899918e-09 1.29938049e-09
      1.24482269e-09 1.16731025e-09 1.12205378e-09 1.15936860e-09
      1.10230858e-09 9.76058456e-10 9.60664770e-10 8.65093275e-10
      7.60383478e-10 6.69870714e-10 5.99755912e-10 5.55859414e-10
      5.18327048e-10 4.79434881e-10 4.98146635e-10 5.14138676e-10
      5.49223278e-10 5.60646141e-10 6.09601369e-10 6.43380460e-10
      6.92498892e-10 7.50102869e-10 8.21631929e-10 8.78419948e-10
      9.65342695e-10 1.08218245e-09 1.16823495e-09 1.25978117e-09
      1.35926914e-09 1.47366119e-09 1.60741775e-09 1.65060710e-09
      1.80122606e-09 1.91175609e-09 2.05954653e-09 2.18873386e-09
      2.34250774e-09 2.42986542e-09 2.60387423e-09 2.73398637e-09
      2.89651769e-09 3.03255887e-09 3.13405923e-09 3.27825966e-09
      3.45950268e-09 3.57226293e-09 3.75296194e-09 3.87953847e-09
      4.01955047e-09 4.22048441e-09 4.33264624e-09 4.51427029e-09
      4.62382133e-09 4.89508745e-09 5.01279773e-09 5.17163024e-09
      5.32850475e-09 5.58269075e-09 5.76485881e-09 6.01648864e-09
      6.16732532e-09 6.39126796e-09 6.52018350e-09 6.78361722e-09
      6.97954672e-09 7.19598336e-09 7.44266337e-09 7.59056284e-09
      7.74934072e-09 7.97437139e-09 8.16431811e-09 8.47137560e-09
      8.59071747e-09 8.89929908e-09 9.07439546e-09 9.34022193e-09
      9.53511847e-09 9.69710623e-09 9.83575799e-09 1.01651176e-08
      1.02837525e-08 1.04423679e-08 1.07864686e-08 1.07703677e-08
      1.09995870e-08 1.12789040e-08 1.16500383e-08 1.17097096e-08
      1.19852732e-08 1.20094787e-08 1.24189077e-08 1.23711494e-08
      1.28263782e-08 1.29775417e-08 1.30430324e-08 1.32589246e-08
      1.33063569e-08 1.32712730e-08 1.35747946e-08 1.35836613e-08
      1.36565506e-08 1.38961047e-08 1.38619445e-08 1.39154688e-08
      1.36971288e-08 1.38655887e-08 1.39323317e-08 1.37980312e-08
      1.39577336e-08 1.37603902e-08 1.36514373e-08 1.36057459e-08
      1.34695961e-08 1.33564004e-08 1.33068472e-08 1.32638203e-08
      1.30192621e-08 1.29444153e-08 1.26282726e-08 1.25836150e-08
      1.23952457e-08 1.22764483e-08 1.26172850e-08 1.18877983e-08
      1.16688597e-08 1.13102896e-08 1.14308820e-08 1.11319292e-08
      1.09387734e-08 1.08234026e-08 1.06561933e-08 1.04604814e-08
      1.00555670e-08 1.01004423e-08 9.75492753e-09 9.61899538e-09
      9.36372047e-09 9.23431553e-09 8.88357921e-09 8.79186945e-09
      8.68318839e-09 8.48693293e-09 8.32761060e-09 8.21735213e-09
      8.06782108e-09 7.82277354e-09 7.64147590e-09 7.63587327e-09
      7.45479323e-09 7.34469818e-09 7.18407067e-09 7.16089854e-09
      6.94179692e-09 6.86727608e-09 6.73944855e-09 6.58507648e-09
      6.52469856e-09 6.38860298e-09 6.26066665e-09 6.25027718e-09
      6.21051477e-09 6.06963235e-09 5.83894444e-09 5.79814818e-09
      5.75871217e-09 5.64372193e-09 5.50077273e-09 5.57534774e-09
      5.47607737e-09 5.34852163e-09 5.26339416e-09 5.22640553e-09
      5.17750509e-09 5.13757925e-09 5.03950570e-09 4.90449770e-09
      4.97145791e-09 4.77558260e-09 4.75001682e-09 4.68991068e-09
      4.65373828e-09 4.60989602e-09 4.52558435e-09 4.51378090e-09
      4.41565273e-09 4.41848114e-09 4.36392344e-09 4.88491558e-09
      6.44250786e-09 6.29357544e-09 6.45447473e-09 7.19255633e-09
      5.17467624e-09 6.53563159e-09 4.57725946e-09 4.31834080e-09
      5.01421216e-09 4.71107020e-09 4.28418057e-09 4.41880754e-09
      4.49245796e-09 5.34215783e-09 4.60826444e-09 5.11756193e-09
      5.95366290e-09 6.95751678e-09 5.43533574e-09 5.06828046e-09
      4.94121410e-09 5.67010305e-09 6.18935525e-09 5.78525672e-09
      6.61347066e-09 5.66879788e-09 5.30440758e-09 5.45518963e-09
      5.16173060e-09 5.25964072e-09 6.42727738e-09 6.07654060e-09
      5.67809932e-09 5.95801453e-09 7.30254257e-09 6.72089984e-09
      7.18336368e-09 7.24287164e-09 6.48145448e-09 6.09590511e-09
      5.43430234e-09 6.91835256e-09 4.99446662e-09 5.56805890e-09
      5.18310772e-09 4.51252991e-09 3.31029804e-09 4.04261380e-09
      5.99973493e-09 4.35913661e-09 4.64209782e-09 5.14764231e-09
      3.68050834e-09 4.41820935e-09 4.08069001e-09 3.30562022e-09
      3.49344509e-09 3.11572834e-09 2.93812952e-09 3.57112073e-09
      2.38885201e-09 8.57469331e-08</_></support_vectors>
  <uncompressed_sv_total>2</uncompressed_sv_total>
  <uncompressed_support_vectors>
    <_>
      0. 0. 1. 0. 3. 0. 2. 6. 4. 4. 12. 10. 9. 10. 11. 12. 12. 16. 11.
      8. 8. 12. 25. 28. 18. 26. 32. 34. 36. 25. 28. 34. 30. 36. 39. 29.
      49. 40. 36. 57. 57. 58. 51. 60. 68. 62. 79. 65. 66. 65. 85. 85.
      91. 84. 98. 87. 83. 89. 119. 113. 121. 120. 164. 158. 159. 128.
      171. 172. 214. 218. 245. 232. 263. 313. 320. 397. 368. 454. 497.
      575. 613. 656. 771. 832. 873. 1010. 1167. 1445. 1885. 2377. 2926.
      3259. 3328. 3167. 2882. 2792. 2901. 3134. 3223. 3491. 3871. 4118.
      4459. 4716. 5027. 5435. 5608. 6033. 6414. 6785. 7205. 7639. 7991.
      8239. 8663. 9048. 9417. 9785. 10286. 10589. 10895. 11253. 11582.
      11768. 12168. 12387. 12671. 12825. 12975. 13524. 13438. 13646.
      14063. 14154. 14162. 14056. 14098. 14216. 14333. 14342. 14272.
      14123. 14165. 13960. 13773. 13668. 13557. 13332. 12964. 12853.
      12747. 12358. 12097. 11645. 11364. 11007. 10626. 10394. 9960.
      9746. 9178. 8892. 8530. 8191. 7735. 7400. 6920. 6632. 6315. 5872.
      5439. 5338. 4916. 4511. 4309. 4170. 3865. 3606. 3296. 3125. 2951.
      2740. 2496. 2435. 2211. 2077. 1870. 1790. 1636. 1496. 1485. 1288.
      1220. 1179. 1040. 1015. 956. 881. 761. 731. 687. 636. 570. 525.
      457. 442. 441. 379. 336. 318. 286. 287. 249. 255. 240. 191. 210.
      171. 147. 168. 150. 110. 141. 99. 77. 82. 74. 78. 55. 72. 52. 46.
      51. 28. 36. 26. 28. 22. 21. 18. 23. 12. 13. 15. 4. 6. 12. 11. 8.
      2. 3. 4. 1. 2. 3. 2.</_>
    <_>
      0. 0. 5424805. 95107. 35466. 23888. 22887. 21466. 20632. 21318.
      20277. 17954. 17670. 15914. 13990. 12327. 11038. 10235. 9540.
      8822. 9166. 9464. 10122. 10335. 11225. 11854. 12763. 13824. 15141.
      16174. 17775. 19929. 21507. 23196. 25028. 27121. 29600. 30385.
      33150. 35203. 37920. 40296. 43116. 44731. 47938. 50324. 53329.
      55816. 57683. 60333. 63685. 65758. 69086. 71406. 73994. 77677.
      79735. 83080. 85124. 90105. 92277. 95196. 98124. 102791. 106141.
      110736. 113552. 117670. 120082. 124929. 128558. 132524. 137090.
      139859. 142785. 146999. 150462. 156193. 158430. 164181. 167438.
      172368. 176066. 179105. 181695. 187887. 190225. 193419. 200185.
      200381. 205144. 210612. 217504. 218440. 223221. 223576. 231212.
      230567. 239025. 242072. 243656. 247872. 249085. 248697. 254588.
      255159. 256672. 261501. 261254. 262609. 259015. 262546. 264125.
      261904. 265264. 262021. 260387. 259915. 257913. 256135. 255530.
      255097. 250930. 249740. 244328. 243726. 240547. 238517. 244933.
      232071. 227960. 221576. 224210. 218805. 215262. 213035. 210003.
      206523. 199196. 200030. 193608. 190960. 186309. 183725. 177090.
      175299. 173190. 169357. 166060. 163922. 161067. 156173. 152579.
      152024. 148414. 146033. 142699. 142041. 137579. 135995. 133077.
      129953. 128481. 125640. 122832. 122306. 121095. 118217. 113659.
      112466. 111308. 109093. 106043. 107009. 104982. 102498. 100628.
      99689. 98480. 97575. 95598. 92905. 93892. 90230. 89536. 88297.
      87425. 86539. 84835. 84478. 82663. 82518. 81447. 90984. 119480.
      116717. 119616. 133110. 95893. 120883. 84836. 80025. 92752. 87134.
      79218. 81678. 83031. 98590. 85055. 94400. 109739. 128195. 100173.
      93431. 91080. 104431. 113996. 106528. 121730. 104384. 97667.
      100399. 95035. 96793. 118237. 111794. 104461. 109611. 134306.
      123630. 132112. 133200. 119207. 112096. 99941. 127214. 91847.
      102386. 95308. 82977. 60880. 74332. 110313. 80154. 85345. 94641.
      67675. 81236. 75028. 60773. 64227. 57284. 54016. 65654. 43920.
      1576386.</_></uncompressed_support_vectors>
  <decision_functions>
    <_>
      <sv_count>1</sv_count>
      <rho>1.0085096707370875e+00</rho>
      <alpha>
        1.</alpha>
      <index>
        0</index></_></decision_functions></opencv_ml_svm>
</opencv_storage>
